GIS
1
0.0
3
B-NP
I-NP
O
7
11 0
3 0 1
3 0 1 2
2 0 2
19 1
7 1 2
28 2
73
nexttag=CD
tag=DT
tag=POS
tag=WDT
tag=WP
tag=EX
tag=PDT
pretype=NULL
tag=PRP$
tag=WP$
tag=NNS-4
tag=PRP
tag=NNP
tag=NOUN
tag=JJS
tag=JJR
tag=JJ
tag=RB
pretype=O
nexttag=PRP
pretag=PRP$
pretag=NN
nexttag=JJ
pretag=JJ
pretag=NNPS
pretag=PRP
nexttag=NN
pretag=NNP
pretag=NNS
pretype=B-NP
pretag=POS
pretag=JJR
pretag=DT
pretag=CC
pretype=I-NP
tag=SYM
nexttag=NNP
nexttag=NNS
tag=RBS
tag=CC
tag=VBG
tag=VBN
tag=``
tag=HYPH
tag=COMMA
tag=:
tag=VB
tag=IN
tag=$
tag=)
tag=(
tag=.
tag=PRT
tag=ADVP-MNR
tag=''
tag=RP
tag=-LSB-
tag=RBR
hasNoun=false
tag=AFX
tag=VBD
pretag=MD
tag=-RSB-
tag=TO
pretag=VBP
pretag=VBZ
tag=HV
tag=MD
tag=UH
tag=VBZ
tag=WRB
tag=VBP
tag=LS
6.008409276773698
4.173648540696733
4.173648540696733
4.173648540696733
4.173648540696733
4.173648540696733
4.173648540696733
5.521583349566962
4.173648540696733
4.173648540696733
4.173648540696733
3.6222601093972964
-0.11460101185268394
2.493195703656892
1.6576870075033852
2.2247525819210354
4.216760243941768
-0.9333332210560579
-0.28238574493446666
1.6983824567860863
-0.9333332210560579
-0.28238574493446655
1.6983824567860863
-1.2708954457663741
-0.6185727988204689
1.358063809935617
-0.4690195112754995
2.5509752785069617
4.7955880514582905
4.677482483953363
2.3323756860177527
4.093644440205371
2.8409675476200684
2.7135814554688578
3.3309526069988715
3.927812041559162
3.8420154505183826
2.8409675476200684
3.3804744940066986
2.8409675476200684
5.0981368556035545
4.180273732068213
3.9278120415591626
4.054060375299381
2.9785416395066786
4.7694092106255415
4.173648540696733
2.5823220161609566
2.8409675476200684
0.5000421179558849
3.4753174839068413
0.9595163699276811
3.062643260641291
1.5318228976876662
2.7668296234017973
1.3147625767992301
2.547336218986421
0.8112861519851581
3.3516519931014623
4.6193362503464765
2.5448067235221323
0.9595163699276811
3.062643260641291
4.1736485406967345
4.1736485406967345
4.1736485406967345
4.1736485406967345
4.1736485406967345
4.1736485406967345
4.1736485406967345
4.1736485406967345
4.1736485406967345
4.1736485406967345
4.1736485406967345
4.1736485406967345
4.1736485406967345
2.9148237923792544
4.1736485406967345
4.1736485406967345
2.399113858341976
4.1736485406967345
4.1736485406967345
2.978151379066874
2.399113858341976
4.1736485406967345
4.1736485406967345
4.1736485406967345
4.1736485406967345
4.1736485406967345
4.1736485406967345
4.1736485406967345
